SVM-light Version V6.20
0 # kernel type
3 # kernel parameter -d 
1 # kernel parameter -g 
1 # kernel parameter -s 
1 # kernel parameter -r 
empty# kernel parameter -u 
47 # highest feature index 
283 # number of training documents 
2 # number of support vectors plus 1 
0 # threshold b, each following line is a SV (starting with alpha*y)
1 1:0.0095193516 2:0.011868992 3:-0.00091397803 4:-0.0087465327 5:-0.0005895237 6:0.008625783 7:0.011295342 8:0.007117915 9:0.005659414 10:0.0096649006 11:-0.0094154859 12:-0.006445908 13:-0.0065564546 14:-0.0080372067 15:0.0087327352 16:0.013115986 17:0.0066480883 18:-0.00087340339 19:-0.0080858245 20:-0.0053053424 21:0.008621389 22:0.0087922225 23:0.0090287337 24:0.010453022 25:0.010345838 26:-0.0078114006 27:0.0092831813 28:-0.0056873695 29:-0.0084170746 30:0.0025938356 31:0.0012186683 32:-0.005167 33:0.0079013286 34:-0.0094825057 35:-0.0006795096 36:0.011401009 37:0.013027468 38:0.009771606 39:0.010276255 40:0.0023302659 41:-0.0072634774 42:0.01059604 43:-0.0046908399 44:-0.004200716 45:0.0034592759 46:-0.013139425 #
